digraph Tree {
node [shape=box] ;
0 [label="X[2] <= 121.5\nentropy = 1.301\nsamples = 144\nvalue = [80, 52, 12]"] ;
1 [label="X[1] <= 165.5\nentropy = 0.986\nsamples = 121\nvalue = [69, 52, 0]"] ;
0 -> 1 [labeldistance=2.5, labelangle=45, headlabel="True"] ;
2 [label="X[0] <= 95.5\nentropy = 0.869\nsamples = 93\nvalue = [66, 27, 0]"] ;
1 -> 2 ;
3 [label="X[1] <= 30.0\nentropy = 0.988\nsamples = 62\nvalue = [35, 27, 0]"] ;
2 -> 3 ;
4 [label="X[0] <= 8.5\nentropy = 0.659\nsamples = 41\nvalue = [34, 7, 0]"] ;
3 -> 4 ;
5 [label="X[1] <= 4.5\nentropy = 0.946\nsamples = 11\nvalue = [4, 7, 0]"] ;
4 -> 5 ;
6 [label="X[1] <= 2.0\nentropy = 0.722\nsamples = 5\nvalue = [4, 1, 0]"] ;
5 -> 6 ;
7 [label="entropy = 0.0\nsamples = 3\nvalue = [3, 0, 0]"] ;
6 -> 7 ;
8 [label="entropy = 1.0\nsamples = 2\nvalue = [1, 1, 0]"] ;
6 -> 8 ;
9 [label="entropy = 0.0\nsamples = 6\nvalue = [0, 6, 0]"] ;
5 -> 9 ;
10 [label="entropy = 0.0\nsamples = 30\nvalue = [30, 0, 0]"] ;
4 -> 10 ;
11 [label="X[1] <= 40.5\nentropy = 0.276\nsamples = 21\nvalue = [1, 20, 0]"] ;
3 -> 11 ;
12 [label="entropy = 0.811\nsamples = 4\nvalue = [1, 3, 0]"] ;
11 -> 12 ;
13 [label="entropy = 0.0\nsamples = 17\nvalue = [0, 17, 0]"] ;
11 -> 13 ;
14 [label="entropy = 0.0\nsamples = 31\nvalue = [31, 0, 0]"] ;
2 -> 14 ;
15 [label="X[0] <= 215.0\nentropy = 0.491\nsamples = 28\nvalue = [3, 25, 0]"] ;
1 -> 15 ;
16 [label="entropy = 0.0\nsamples = 23\nvalue = [0, 23, 0]"] ;
15 -> 16 ;
17 [label="X[2] <= 67.5\nentropy = 0.971\nsamples = 5\nvalue = [3, 2, 0]"] ;
15 -> 17 ;
18 [label="entropy = 0.0\nsamples = 3\nvalue = [3, 0, 0]"] ;
17 -> 18 ;
19 [label="entropy = 0.0\nsamples = 2\nvalue = [0, 2, 0]"] ;
17 -> 19 ;
20 [label="X[2] <= 215.0\nentropy = 0.999\nsamples = 23\nvalue = [11, 0, 12]"] ;
0 -> 20 [labeldistance=2.5, labelangle=-45, headlabel="False"] ;
21 [label="X[0] <= 160.5\nentropy = 0.75\nsamples = 14\nvalue = [11, 0, 3]"] ;
20 -> 21 ;
22 [label="entropy = 0.0\nsamples = 3\nvalue = [0, 0, 3]"] ;
21 -> 22 ;
23 [label="entropy = 0.0\nsamples = 11\nvalue = [11, 0, 0]"] ;
21 -> 23 ;
24 [label="entropy = 0.0\nsamples = 9\nvalue = [0, 0, 9]"] ;
20 -> 24 ;
}