digraph Tree {
node [shape=box] ;
0 [label="X[2] <= 215.0\ngini = 0.63\nsamples = 150\nvalue = [75, 48, 17, 10]"] ;
1 [label="X[1] <= 166.5\ngini = 0.577\nsamples = 138\nvalue = [75, 48, 5, 10]"] ;
0 -> 1 [labeldistance=2.5, labelangle=45, headlabel="True"] ;
2 [label="X[0] <= 0.5\ngini = 0.531\nsamples = 113\nvalue = [72, 26, 5, 10]"] ;
1 -> 2 ;
3 [label="X[1] <= 2.5\ngini = 0.165\nsamples = 11\nvalue = [0, 1, 0, 10]"] ;
2 -> 3 ;
4 [label="gini = 0.0\nsamples = 10\nvalue = [0, 0, 0, 10]"] ;
3 -> 4 ;
5 [label="gini = 0.0\nsamples = 1\nvalue = [0, 1, 0, 0]"] ;
3 -> 5 ;
6 [label="X[0] <= 95.5\ngini = 0.439\nsamples = 102\nvalue = [72, 25, 5, 0]"] ;
2 -> 6 ;
7 [label="X[1] <= 41.5\ngini = 0.529\nsamples = 64\nvalue = [36, 25, 3, 0]"] ;
6 -> 7 ;
8 [label="X[0] <= 8.5\ngini = 0.34\nsamples = 44\nvalue = [35, 7, 2, 0]"] ;
7 -> 8 ;
9 [label="X[1] <= 2.0\ngini = 0.5\nsamples = 12\nvalue = [6, 6, 0, 0]"] ;
8 -> 9 ;
10 [label="gini = 0.0\nsamples = 5\nvalue = [5, 0, 0, 0]"] ;
9 -> 10 ;
11 [label="X[1] <= 5.0\ngini = 0.245\nsamples = 7\nvalue = [1, 6, 0, 0]"] ;
9 -> 11 ;
12 [label="X[0] <= 3.5\ngini = 0.5\nsamples = 2\nvalue = [1, 1, 0, 0]"] ;
11 -> 12 ;
13 [label="gini = 0.0\nsamples = 1\nvalue = [0, 1, 0, 0]"] ;
12 -> 13 ;
14 [label="gini = 0.0\nsamples = 1\nvalue = [1, 0, 0, 0]"] ;
12 -> 14 ;
15 [label="gini = 0.0\nsamples = 5\nvalue = [0, 5, 0, 0]"] ;
11 -> 15 ;
16 [label="X[2] <= 71.5\ngini = 0.174\nsamples = 32\nvalue = [29, 1, 2, 0]"] ;
8 -> 16 ;
17 [label="X[1] <= 31.5\ngini = 0.064\nsamples = 30\nvalue = [29, 1, 0, 0]"] ;
16 -> 17 ;
18 [label="gini = 0.0\nsamples = 27\nvalue = [27, 0, 0, 0]"] ;
17 -> 18 ;
19 [label="X[0] <= 32.5\ngini = 0.444\nsamples = 3\nvalue = [2, 1, 0, 0]"] ;
17 -> 19 ;
20 [label="gini = 0.0\nsamples = 1\nvalue = [0, 1, 0, 0]"] ;
19 -> 20 ;
21 [label="gini = 0.0\nsamples = 2\nvalue = [2, 0, 0, 0]"] ;
19 -> 21 ;
22 [label="gini = 0.0\nsamples = 2\nvalue = [0, 0, 2, 0]"] ;
16 -> 22 ;
23 [label="X[2] <= 101.5\ngini = 0.185\nsamples = 20\nvalue = [1, 18, 1, 0]"] ;
7 -> 23 ;
24 [label="X[1] <= 52.5\ngini = 0.1\nsamples = 19\nvalue = [1, 18, 0, 0]"] ;
23 -> 24 ;
25 [label="X[1] <= 48.0\ngini = 0.444\nsamples = 3\nvalue = [1, 2, 0, 0]"] ;
24 -> 25 ;
26 [label="gini = 0.0\nsamples = 2\nvalue = [0, 2, 0, 0]"] ;
25 -> 26 ;
27 [label="gini = 0.0\nsamples = 1\nvalue = [1, 0, 0, 0]"] ;
25 -> 27 ;
28 [label="gini = 0.0\nsamples = 16\nvalue = [0, 16, 0, 0]"] ;
24 -> 28 ;
29 [label="gini = 0.0\nsamples = 1\nvalue = [0, 0, 1, 0]"] ;
23 -> 29 ;
30 [label="X[2] <= 169.5\ngini = 0.1\nsamples = 38\nvalue = [36, 0, 2, 0]"] ;
6 -> 30 ;
31 [label="gini = 0.0\nsamples = 30\nvalue = [30, 0, 0, 0]"] ;
30 -> 31 ;
32 [label="X[0] <= 177.5\ngini = 0.375\nsamples = 8\nvalue = [6, 0, 2, 0]"] ;
30 -> 32 ;
33 [label="gini = 0.0\nsamples = 2\nvalue = [0, 0, 2, 0]"] ;
32 -> 33 ;
34 [label="gini = 0.0\nsamples = 6\nvalue = [6, 0, 0, 0]"] ;
32 -> 34 ;
35 [label="X[0] <= 215.0\ngini = 0.211\nsamples = 25\nvalue = [3, 22, 0, 0]"] ;
1 -> 35 ;
36 [label="gini = 0.0\nsamples = 21\nvalue = [0, 21, 0, 0]"] ;
35 -> 36 ;
37 [label="X[1] <= 234.0\ngini = 0.375\nsamples = 4\nvalue = [3, 1, 0, 0]"] ;
35 -> 37 ;
38 [label="gini = 0.0\nsamples = 3\nvalue = [3, 0, 0, 0]"] ;
37 -> 38 ;
39 [label="gini = 0.0\nsamples = 1\nvalue = [0, 1, 0, 0]"] ;
37 -> 39 ;
40 [label="gini = 0.0\nsamples = 12\nvalue = [0, 0, 12, 0]"] ;
0 -> 40 [labeldistance=2.5, labelangle=-45, headlabel="False"] ;
}